<?xml version="1.0"?>
<opencv_storage>
<cascade>
  <stageType>BOOST</stageType>
  <featureType>HAAR</featureType>
  <height>10</height>
  <width>30</width>
  <stageParams>
    <boostType>GAB</boostType>
    <minHitRate>9.9000000953674316e-01</minHitRate>
    <maxFalseAlarm>3.0000001192092896e-01</maxFalseAlarm>
    <weightTrimRate>9.4999999999999996e-01</weightTrimRate>
    <maxDepth>1</maxDepth>
    <maxWeakCount>100</maxWeakCount></stageParams>
  <featureParams>
    <maxCatCount>0</maxCatCount>
    <featSize>1</featSize>
    <mode>BASIC</mode></featureParams>
  <stageNum>15</stageNum>
  <stages>
    <!-- stage 0 -->
    <_>
      <maxWeakCount>4</maxWeakCount>
      <stageThreshold>-1.3443832397460938e+00</stageThreshold>
      <weakClassifiers>
        <_>
          <internalNodes>
            0 -1 29 -2.0957082509994507e-01</internalNodes>
          <leafValues>
            8.4931504726409912e-01 -9.0375363826751709e-01</leafValues></_>
        <_>
          <internalNodes>
            0 -1 116 2.3710435256361961e-02</internalNodes>
          <leafValues>
            -6.9546884298324585e-01 7.8379744291305542e-01</leafValues></_>
        <_>
          <internalNodes>
            0 -1 75 2.4744987487792969e-02</internalNodes>
          <leafValues>
            -5.5519902706146240e-01 9.4531208276748657e-01</leafValues></_>
        <_>
          <internalNodes>
            0 -1 70 -3.6006897687911987e-02</internalNodes>
          <leafValues>
            8.1003826856613159e-01 -4.5063310861587524e-01</leafValues></_></weakClassifiers></_>
    <!-- stage 1 -->
    <_>
      <maxWeakCount>5</maxWeakCount>
      <stageThreshold>-1.7217172384262085e+00</stageThreshold>
      <weakClassifiers>
        <_>
          <internalNodes>
            0 -1 56 -2.8405946493148804e-01</internalNodes>
          <leafValues>
            4.3195265531539917e-01 -8.7401574850082397e-01</leafValues></_>
        <_>
          <internalNodes>
            0 -1 79 6.0137339460197836e-05</internalNodes>
          <leafValues>
            -8.4997445344924927e-01 3.1207999587059021e-01</leafValues></_>
        <_>
          <internalNodes>
            0 -1 3 2.7846229076385498e-01</internalNodes>
          <leafValues>
            1.7272876203060150e-01 -9.9359858036041260e-01</leafValues></_>
        <_>
          <internalNodes>
            0 -1 45 -2.3139926791191101e-01</internalNodes>
          <leafValues>
            -9.4152885675430298e-01 2.9649305343627930e-01</leafValues></_>
        <_>
          <internalNodes>
            0 -1 68 -2.0315963774919510e-02</internalNodes>
          <leafValues>
            6.8251371383666992e-01 -4.6694883704185486e-01</leafValues></_></weakClassifiers></_>
    <!-- stage 2 -->
    <_>
      <maxWeakCount>7</maxWeakCount>
      <stageThreshold>-1.2204903364181519e+00</stageThreshold>
      <weakClassifiers>
        <_>
          <internalNodes>
            0 -1 58 -1.4823034405708313e-01</internalNodes>
          <leafValues>
            8.2222223281860352e-01 -7.4736839532852173e-01</leafValues></_>
        <_>
          <internalNodes>
            0 -1 95 5.6646691518835723e-05</internalNodes>
          <leafValues>
            -6.3553386926651001e-01 2.6863983273506165e-01</leafValues></_>
        <_>
          <internalNodes>
            0 -1 153 -3.4666794817894697e-04</internalNodes>
          <leafValues>
            4.3966379761695862e-01 -4.8438200354576111e-01</leafValues></_>
        <_>
          <internalNodes>
            0 -1 72 -5.9465197846293449e-03</internalNodes>
          <leafValues>
            5.1689451932907104e-01 -3.8393145799636841e-01</leafValues></_>
        <_>
          <internalNodes>
            0 -1 63 -1.4255074784159660e-02</internalNodes>
          <leafValues>
            7.3151218891143799e-01 -3.4057438373565674e-01</leafValues></_>
        <_>
          <internalNodes>
            0 -1 86 3.0068671912886202e-04</internalNodes>
          <leafValues>
            -6.8608069419860840e-01 3.4621390700340271e-01</leafValues></_>
        <_>
          <internalNodes>
            0 -1 37 6.8944263458251953e-01</internalNodes>
          <leafValues>
            2.5238078832626343e-01 -9.7508466243743896e-01</leafValues></_></weakClassifiers></_>
    <!-- stage 3 -->
    <_>
      <maxWeakCount>10</maxWeakCount>
      <stageThreshold>-1.0913020372390747e+00</stageThreshold>
      <weakClassifiers>
        <_>
          <internalNodes>
            0 -1 42 7.2106331586837769e-02</internalNodes>
          <leafValues>
            -7.6344084739685059e-01 5.3623187541961670e-01</leafValues></_>
        <_>
          <internalNodes>
            0 -1 62 3.7659510970115662e-02</internalNodes>
          <leafValues>
            -4.5299094915390015e-01 6.4295679330825806e-01</leafValues></_>
        <_>
          <internalNodes>
            0 -1 27 -1.8167352676391602e-01</internalNodes>
          <leafValues>
            -9.5959389209747314e-01 1.7796176671981812e-01</leafValues></_>
        <_>
          <internalNodes>
            0 -1 47 -2.4066153913736343e-02</internalNodes>
          <leafValues>
            7.3508179187774658e-01 -2.7306509017944336e-01</leafValues></_>
        <_>
          <internalNodes>
            0 -1 57 -2.3394953459501266e-02</internalNodes>
          <leafValues>
            7.9790186882019043e-01 -2.4446167051792145e-01</leafValues></_>
        <_>
          <internalNodes>
            0 -1 127 1.7796002328395844e-02</internalNodes>
          <leafValues>
            2.6976966857910156e-01 -8.9413118362426758e-01</leafValues></_>
        <_>
          <internalNodes>
            0 -1 52 -7.2143157012760639e-05</internalNodes>
          <leafValues>
            -7.4373102188110352e-01 1.9395172595977783e-01</leafValues></_>
        <_>
          <internalNodes>
            0 -1 7 5.5087976157665253e-02</internalNodes>
          <leafValues>
            -3.1124180555343628e-01 6.9654035568237305e-01</leafValues></_>
        <_>
          <internalNodes>
            0 -1 10 2.4209877476096153e-02</internalNodes>
          <leafValues>
            -2.2515225410461426e-01 6.8016117811203003e-01</leafValues></_>
        <_>
          <internalNodes>
            0 -1 13 2.7192056179046631e-02</internalNodes>
          <leafValues>
            -3.0140101909637451e-01 5.3736746311187744e-01</leafValues></_></weakClassifiers></_>
    <!-- stage 4 -->
    <_>
      <maxWeakCount>11</maxWeakCount>
      <stageThreshold>-9.0023565292358398e-01</stageThreshold>
      <weakClassifiers>
        <_>
          <internalNodes>
            0 -1 22 -3.9804160594940186e-02</internalNodes>
          <leafValues>
            5.3846156597137451e-01 -7.4404233694076538e-01</leafValues></_>
        <_>
          <internalNodes>
            0 -1 21 2.3044452071189880e-02</internalNodes>
          <leafValues>
            -4.1647219657897949e-01 5.2568036317825317e-01</leafValues></_>
        <_>
          <internalNodes>
            0 -1 130 2.1043722517788410e-03</internalNodes>
          <leafValues>
            1.7160256206989288e-01 -8.3021378517150879e-01</leafValues></_>
        <_>
          <internalNodes>
            0 -1 148 2.1211414132267237e-03</internalNodes>
          <leafValues>
            1.4382357895374298e-01 -7.9393666982650757e-01</leafValues></_>
        <_>
          <internalNodes>
            0 -1 142 -1.6291208565235138e-02</internalNodes>
          <leafValues>
            6.4850872755050659e-01 -2.5081878900527954e-01</leafValues></_>
        <_>
          <internalNodes>
            0 -1 11 -3.8618525862693787e-01</internalNodes>
          <leafValues>
            -9.1136002540588379e-01 2.2160862386226654e-01</leafValues></_>
        <_>
          <internalNodes>
            0 -1 150 2.4057567119598389e-02</internalNodes>
          <leafValues>
            1.3651002943515778e-01 -7.7352505922317505e-01</leafValues></_>
        <_>
          <internalNodes>
            0 -1 67 -2.3967998567968607e-03</internalNodes>
          <leafValues>
            -7.3797845840454102e-01 1.6763617098331451e-01</leafValues></_>
        <_>
          <internalNodes>
            0 -1 14 -6.8659982644021511e-03</internalNodes>
          <leafValues>
            2.9654604196548462e-01 -4.8995256423950195e-01</leafValues></_>
        <_>
          <internalNodes>
            0 -1 96 -1.5930898487567902e-02</internalNodes>
          <leafValues>
            6.0066354274749756e-01 -2.5353413820266724e-01</leafValues></_>
        <_>
          <internalNodes>
            0 -1 87 -1.5672661364078522e-02</internalNodes>
          <leafValues>
            6.2872117757797241e-01 -2.6717844605445862e-01</leafValues></_></weakClassifiers></_>
    <!-- stage 5 -->
    <_>
      <maxWeakCount>5</maxWeakCount>
      <stageThreshold>-1.6476280689239502e+00</stageThreshold>
      <weakClassifiers>
        <_>
          <internalNodes>
            0 -1 55 -3.6629670858383179e-01</internalNodes>
          <leafValues>
            7.2625696659088135e-02 -8.2306164503097534e-01</leafValues></_>
        <_>
          <internalNodes>
            0 -1 74 1.6841137409210205e-01</internalNodes>
          <leafValues>
            -6.0733497142791748e-01 2.4976347386837006e-01</leafValues></_>
        <_>
          <internalNodes>
            0 -1 101 -1.0267025232315063e-01</internalNodes>
          <leafValues>
            5.9975898265838623e-01 -3.3841326832771301e-01</leafValues></_>
        <_>
          <internalNodes>
            0 -1 20 1.2521713506430387e-04</internalNodes>
          <leafValues>
            2.9721581935882568e-01 -5.9472697973251343e-01</leafValues></_>
        <_>
          <internalNodes>
            0 -1 102 6.3187606632709503e-02</internalNodes>
          <leafValues>
            -2.2226344048976898e-01 6.9632440805435181e-01</leafValues></_></weakClassifiers></_>
    <!-- stage 6 -->
    <_>
      <maxWeakCount>12</maxWeakCount>
      <stageThreshold>-1.4339122772216797e+00</stageThreshold>
      <weakClassifiers>
        <_>
          <internalNodes>
            0 -1 32 -2.1663799881935120e-01</internalNodes>
          <leafValues>
            8.0487805604934692e-01 -7.4125874042510986e-01</leafValues></_>
        <_>
          <internalNodes>
            0 -1 137 4.7706914483569562e-04</internalNodes>
          <leafValues>
            -7.1415823698043823e-01 2.9800849035382271e-02</leafValues></_>
        <_>
          <internalNodes>
            0 -1 100 1.2971999123692513e-02</internalNodes>
          <leafValues>
            1.2797221541404724e-01 -8.8827764987945557e-01</leafValues></_>
        <_>
          <internalNodes>
            0 -1 115 3.0599981546401978e-02</internalNodes>
          <leafValues>
            -2.5888204574584961e-01 5.7198089361190796e-01</leafValues></_>
        <_>
          <internalNodes>
            0 -1 124 1.8490731716156006e-02</internalNodes>
          <leafValues>
            -2.6466113328933716e-01 5.3160727024078369e-01</leafValues></_>
        <_>
          <internalNodes>
            0 -1 15 2.3863014578819275e-01</internalNodes>
          <leafValues>
            -1.6358065605163574e-01 6.8565702438354492e-01</leafValues></_>
        <_>
          <internalNodes>
            0 -1 2 1.8986091017723083e-02</internalNodes>
          <leafValues>
            1.5650908648967743e-01 -8.4148007631301880e-01</leafValues></_>
        <_>
          <internalNodes>
            0 -1 128 6.0437889769673347e-03</internalNodes>
          <leafValues>
            1.4330819249153137e-01 -6.5402621030807495e-01</leafValues></_>
        <_>
          <internalNodes>
            0 -1 160 2.2529294714331627e-02</internalNodes>
          <leafValues>
            -1.6002488136291504e-01 7.7509915828704834e-01</leafValues></_>
        <_>
          <internalNodes>
            0 -1 30 -1.2960636988282204e-02</internalNodes>
          <leafValues>
            6.0799056291580200e-01 -1.7860819399356842e-01</leafValues></_>
        <_>
          <internalNodes>
            0 -1 44 -3.0231125652790070e-02</internalNodes>
          <leafValues>
            5.9488356113433838e-01 -2.1680369973182678e-01</leafValues></_>
        <_>
          <internalNodes>
            0 -1 81 -2.3270007222890854e-03</internalNodes>
          <leafValues>
            -7.8118586540222168e-01 1.6773141920566559e-01</leafValues></_></weakClassifiers></_>
    <!-- stage 7 -->
    <_>
      <maxWeakCount>14</maxWeakCount>
      <stageThreshold>-1.3690487146377563e+00</stageThreshold>
      <weakClassifiers>
        <_>
          <internalNodes>
            0 -1 8 -1.0856836289167404e-01</internalNodes>
          <leafValues>
            4.6666666865348816e-01 -7.4933332204818726e-01</leafValues></_>
        <_>
          <internalNodes>
            0 -1 65 3.5852491855621338e-02</internalNodes>
          <leafValues>
            -3.2128831744194031e-01 6.0514777898788452e-01</leafValues></_>
        <_>
          <internalNodes>
            0 -1 93 -2.5414653122425079e-02</internalNodes>
          <leafValues>
            5.4680538177490234e-01 -1.9566810131072998e-01</leafValues></_>
        <_>
          <internalNodes>
            0 -1 39 6.0859287623316050e-04</internalNodes>
          <leafValues>
            -5.7088488340377808e-01 2.2335109114646912e-01</leafValues></_>
        <_>
          <internalNodes>
            0 -1 71 3.0827375128865242e-02</internalNodes>
          <leafValues>
            -1.6640628874301910e-01 7.2138839960098267e-01</leafValues></_>
        <_>
          <internalNodes>
            0 -1 133 -1.6286093741655350e-02</internalNodes>
          <leafValues>
            5.8821576833724976e-01 -1.5088403224945068e-01</leafValues></_>
        <_>
          <internalNodes>
            0 -1 26 2.4394001811742783e-02</internalNodes>
          <leafValues>
            1.7246913909912109e-01 -8.2658988237380981e-01</leafValues></_>
        <_>
          <internalNodes>
            0 -1 68 -2.2515766322612762e-02</internalNodes>
          <leafValues>
            4.3008774518966675e-01 -2.6219427585601807e-01</leafValues></_>
        <_>
          <internalNodes>
            0 -1 46 -7.0121452212333679e-02</internalNodes>
          <leafValues>
            7.2915577888488770e-01 -1.2360817939043045e-01</leafValues></_>
        <_>
          <internalNodes>
            0 -1 94 1.1569305206649005e-04</internalNodes>
          <leafValues>
            -4.3037882447242737e-01 2.7573609352111816e-01</leafValues></_>
        <_>
          <internalNodes>
            0 -1 141 -2.0608804188668728e-03</internalNodes>
          <leafValues>
            4.3101492524147034e-01 -2.2862863540649414e-01</leafValues></_>
        <_>
          <internalNodes>
            0 -1 134 -1.7526220530271530e-02</internalNodes>
          <leafValues>
            5.2250021696090698e-01 -1.8004970252513885e-01</leafValues></_>
        <_>
          <internalNodes>
            0 -1 157 -1.2408539652824402e-02</internalNodes>
          <leafValues>
            4.2343640327453613e-01 -2.4417062103748322e-01</leafValues></_>
        <_>
          <internalNodes>
            0 -1 92 -2.3497543297708035e-03</internalNodes>
          <leafValues>
            -6.8894070386886597e-01 1.7856846749782562e-01</leafValues></_></weakClassifiers></_>
    <!-- stage 8 -->
    <_>
      <maxWeakCount>13</maxWeakCount>
      <stageThreshold>-1.4377647638320923e+00</stageThreshold>
      <weakClassifiers>
        <_>
          <internalNodes>
            0 -1 41 1.0051545500755310e-01</internalNodes>
          <leafValues>
            -7.7899545431137085e-01 2.0000000298023224e-01</leafValues></_>
        <_>
          <internalNodes>
            0 -1 90 4.5393835753202438e-02</internalNodes>
          <leafValues>
            -4.4577616453170776e-01 4.0654885768890381e-01</leafValues></_>
        <_>
          <internalNodes>
            0 -1 99 5.1473975181579590e-02</internalNodes>
          <leafValues>
            -2.0691040158271790e-01 6.8204516172409058e-01</leafValues></_>
        <_>
          <internalNodes>
            0 -1 53 -2.9341545887291431e-03</internalNodes>
          <leafValues>
            -6.5743279457092285e-01 2.0132023096084595e-01</leafValues></_>
        <_>
          <internalNodes>
            0 -1 146 4.7620058059692383e-02</internalNodes>
          <leafValues>
            -1.0135163366794586e-01 8.8592875003814697e-01</leafValues></_>
        <_>
          <internalNodes>
            0 -1 50 -1.0717273107729852e-04</internalNodes>
          <leafValues>
            3.6144545674324036e-01 -2.9062899947166443e-01</leafValues></_>
        <_>
          <internalNodes>
            0 -1 38 -1.9233096390962601e-02</internalNodes>
          <leafValues>
            5.8012658357620239e-01 -1.7324137687683105e-01</leafValues></_>
        <_>
          <internalNodes>
            0 -1 6 -2.2406309843063354e-02</internalNodes>
          <leafValues>
            5.8701413869857788e-01 -1.8187318742275238e-01</leafValues></_>
        <_>
          <internalNodes>
            0 -1 59 9.4093084335327148e-03</internalNodes>
          <leafValues>
            -4.8560434579849243e-01 2.2480002045631409e-01</leafValues></_>
        <_>
          <internalNodes>
            0 -1 36 -9.4070017337799072e-02</internalNodes>
          <leafValues>
            -9.4799238443374634e-01 8.7418079376220703e-02</leafValues></_>
        <_>
          <internalNodes>
            0 -1 106 2.5870133191347122e-02</internalNodes>
          <leafValues>
            -2.0012353360652924e-01 6.1460989713668823e-01</leafValues></_>
        <_>
          <internalNodes>
            0 -1 28 -1.0284052789211273e-01</internalNodes>
          <leafValues>
            4.5157915353775024e-01 -1.9815480709075928e-01</leafValues></_>
        <_>
          <internalNodes>
            0 -1 108 -2.1252552978694439e-03</internalNodes>
          <leafValues>
            4.8383173346519470e-01 -2.1814309060573578e-01</leafValues></_></weakClassifiers></_>
    <!-- stage 9 -->
    <_>
      <maxWeakCount>13</maxWeakCount>
      <stageThreshold>-1.2195128202438354e+00</stageThreshold>
      <weakClassifiers>
        <_>
          <internalNodes>
            0 -1 105 -6.4775884151458740e-02</internalNodes>
          <leafValues>
            2.8888890147209167e-01 -7.6502239704132080e-01</leafValues></_>
        <_>
          <internalNodes>
            0 -1 88 3.5241052508354187e-02</internalNodes>
          <leafValues>
            -3.9464485645294189e-01 3.5835883021354675e-01</leafValues></_>
        <_>
          <internalNodes>
            0 -1 24 5.5512133985757828e-03</internalNodes>
          <leafValues>
            1.2718968093395233e-01 -7.3565757274627686e-01</leafValues></_>
        <_>
          <internalNodes>
            0 -1 154 3.1000137329101563e-02</internalNodes>
          <leafValues>
            -2.3130603134632111e-01 5.0291460752487183e-01</leafValues></_>
        <_>
          <internalNodes>
            0 -1 60 3.9365340024232864e-02</internalNodes>
          <leafValues>
            -1.0112928599119186e-01 7.3924821615219116e-01</leafValues></_>
        <_>
          <internalNodes>
            0 -1 136 3.8806647062301636e-02</internalNodes>
          <leafValues>
            -1.0984947532415390e-01 7.3555731773376465e-01</leafValues></_>
        <_>
          <internalNodes>
            0 -1 78 4.1366606950759888e-02</internalNodes>
          <leafValues>
            -1.1633444577455521e-01 7.3253589868545532e-01</leafValues></_>
        <_>
          <internalNodes>
            0 -1 61 -1.8342029303312302e-02</internalNodes>
          <leafValues>
            -8.2325571775436401e-01 1.4360475540161133e-01</leafValues></_>
        <_>
          <internalNodes>
            0 -1 152 -2.4551611393690109e-02</internalNodes>
          <leafValues>
            5.5046671628952026e-01 -2.0763048529624939e-01</leafValues></_>
        <_>
          <internalNodes>
            0 -1 114 -3.3589214086532593e-02</internalNodes>
          <leafValues>
            7.4280500411987305e-01 -1.0253977775573730e-01</leafValues></_>
        <_>
          <internalNodes>
            0 -1 19 1.5398673713207245e-04</internalNodes>
          <leafValues>
            2.0863689482212067e-01 -5.3486013412475586e-01</leafValues></_>
        <_>
          <internalNodes>
            0 -1 145 3.0178930610418320e-02</internalNodes>
          <leafValues>
            -1.9986715912818909e-01 5.8660972118377686e-01</leafValues></_>
        <_>
          <internalNodes>
            0 -1 131 1.4218784868717194e-02</internalNodes>
          <leafValues>
            -1.9086398184299469e-01 5.4634881019592285e-01</leafValues></_></weakClassifiers></_>
    <!-- stage 10 -->
    <_>
      <maxWeakCount>13</maxWeakCount>
      <stageThreshold>-1.1392822265625000e+00</stageThreshold>
      <weakClassifiers>
        <_>
          <internalNodes>
            0 -1 83 4.3691128492355347e-02</internalNodes>
          <leafValues>
            -7.5398230552673340e-01 4.0000000596046448e-01</leafValues></_>
        <_>
          <internalNodes>
            0 -1 118 -2.9122427105903625e-02</internalNodes>
          <leafValues>
            4.7708067297935486e-01 -3.4090235829353333e-01</leafValues></_>
        <_>
          <internalNodes>
            0 -1 33 2.0285623148083687e-02</internalNodes>
          <leafValues>
            7.6136216521263123e-02 -1.</leafValues></_>
        <_>
          <internalNodes>
            0 -1 82 9.3627840280532837e-02</internalNodes>
          <leafValues>
            -1.4113789796829224e-01 5.9811294078826904e-01</leafValues></_>
        <_>
          <internalNodes>
            0 -1 4 -1.2195671349763870e-01</internalNodes>
          <leafValues>
            7.6178210973739624e-01 -1.1843336373567581e-01</leafValues></_>
        <_>
          <internalNodes>
            0 -1 49 6.6175088286399841e-02</internalNodes>
          <leafValues>
            -1.4151711761951447e-01 5.5593365430831909e-01</leafValues></_>
        <_>
          <internalNodes>
            0 -1 123 3.9614783599972725e-04</internalNodes>
          <leafValues>
            -3.3270260691642761e-01 3.3422908186912537e-01</leafValues></_>
        <_>
          <internalNodes>
            0 -1 64 1.8245268613100052e-02</internalNodes>
          <leafValues>
            -1.5656831860542297e-01 5.5863016843795776e-01</leafValues></_>
        <_>
          <internalNodes>
            0 -1 117 -4.1878240881487727e-04</internalNodes>
          <leafValues>
            -8.2838070392608643e-01 1.1710094660520554e-01</leafValues></_>
        <_>
          <internalNodes>
            0 -1 17 6.0833871364593506e-02</internalNodes>
          <leafValues>
            -1.6949269175529480e-01 5.4227191209793091e-01</leafValues></_>
        <_>
          <internalNodes>
            0 -1 12 -2.9609126970171928e-02</internalNodes>
          <leafValues>
            3.5838645696640015e-01 -2.6950684189796448e-01</leafValues></_>
        <_>
          <internalNodes>
            0 -1 97 1.6583047807216644e-02</internalNodes>
          <leafValues>
            1.1213058978319168e-01 -7.5480538606643677e-01</leafValues></_>
        <_>
          <internalNodes>
            0 -1 138 2.3712389171123505e-02</internalNodes>
          <leafValues>
            -1.6006013751029968e-01 6.1131387948989868e-01</leafValues></_></weakClassifiers></_>
    <!-- stage 11 -->
    <_>
      <maxWeakCount>15</maxWeakCount>
      <stageThreshold>-1.2880257368087769e+00</stageThreshold>
      <weakClassifiers>
        <_>
          <internalNodes>
            0 -1 119 -1.1318539083003998e-01</internalNodes>
          <leafValues>
            1.8367347121238708e-01 -7.6417642831802368e-01</leafValues></_>
        <_>
          <internalNodes>
            0 -1 107 2.3387826979160309e-02</internalNodes>
          <leafValues>
            -8.4160886704921722e-02 -7.6451528072357178e-01</leafValues></_>
        <_>
          <internalNodes>
            0 -1 109 -2.5017982348799706e-02</internalNodes>
          <leafValues>
            -1. 5.8010485023260117e-02</leafValues></_>
        <_>
          <internalNodes>
            0 -1 89 -1.1374317109584808e-01</internalNodes>
          <leafValues>
            3.7835174798965454e-01 -2.2784838080406189e-01</leafValues></_>
        <_>
          <internalNodes>
            0 -1 125 -1.6760808648541570e-03</internalNodes>
          <leafValues>
            -4.4670537114143372e-01 1.7616650462150574e-01</leafValues></_>
        <_>
          <internalNodes>
            0 -1 66 3.1857680529356003e-02</internalNodes>
          <leafValues>
            -1.8940120935440063e-01 4.2029881477355957e-01</leafValues></_>
        <_>
          <internalNodes>
            0 -1 43 -1.3432707637548447e-03</internalNodes>
          <leafValues>
            -4.1392910480499268e-01 1.9019472599029541e-01</leafValues></_>
        <_>
          <internalNodes>
            0 -1 23 -1.5882471576333046e-02</internalNodes>
          <leafValues>
            4.1262710094451904e-01 -2.3062638938426971e-01</leafValues></_>
        <_>
          <internalNodes>
            0 -1 161 -2.5842040777206421e-02</internalNodes>
          <leafValues>
            7.6679939031600952e-01 -1.0608469694852829e-01</leafValues></_>
        <_>
          <internalNodes>
            0 -1 69 4.5884847640991211e-03</internalNodes>
          <leafValues>
            1.6929554939270020e-01 -5.5705720186233521e-01</leafValues></_>
        <_>
          <internalNodes>
            0 -1 113 4.0290884673595428e-02</internalNodes>
          <leafValues>
            -1.2293724715709686e-01 7.2644275426864624e-01</leafValues></_>
        <_>
          <internalNodes>
            0 -1 54 3.4018125385046005e-02</internalNodes>
          <leafValues>
            -1.0213208943605423e-01 7.3514145612716675e-01</leafValues></_>
        <_>
          <internalNodes>
            0 -1 85 6.2877804040908813e-02</internalNodes>
          <leafValues>
            -1.5459452569484711e-01 4.7106501460075378e-01</leafValues></_>
        <_>
          <internalNodes>
            0 -1 151 2.1448919549584389e-02</internalNodes>
          <leafValues>
            -1.8723648786544800e-01 4.3543913960456848e-01</leafValues></_>
        <_>
          <internalNodes>
            0 -1 40 1.5431863721460104e-04</internalNodes>
          <leafValues>
            -2.5505504012107849e-01 3.3022677898406982e-01</leafValues></_></weakClassifiers></_>
    <!-- stage 12 -->
    <_>
      <maxWeakCount>16</maxWeakCount>
      <stageThreshold>-1.3431708812713623e+00</stageThreshold>
      <weakClassifiers>
        <_>
          <internalNodes>
            0 -1 103 1.1996763944625854e-01</internalNodes>
          <leafValues>
            -7.4539071321487427e-01 4.2857143282890320e-01</leafValues></_>
        <_>
          <internalNodes>
            0 -1 48 4.2025789618492126e-02</internalNodes>
          <leafValues>
            -5.3051775693893433e-01 1.3332515954971313e-02</leafValues></_>
        <_>
          <internalNodes>
            0 -1 84 -3.3365750312805176e-01</internalNodes>
          <leafValues>
            -1. 5.3304992616176605e-02</leafValues></_>
        <_>
          <internalNodes>
            0 -1 110 6.5977470949292183e-03</internalNodes>
          <leafValues>
            1.3132056593894958e-01 -6.4024901390075684e-01</leafValues></_>
        <_>
          <internalNodes>
            0 -1 76 2.9066669940948486e-01</internalNodes>
          <leafValues>
            7.6119385659694672e-02 -1.</leafValues></_>
        <_>
          <internalNodes>
            0 -1 147 2.5624386034905910e-03</internalNodes>
          <leafValues>
            9.6234522759914398e-02 -6.3540565967559814e-01</leafValues></_>
        <_>
          <internalNodes>
            0 -1 156 7.8773999121040106e-04</internalNodes>
          <leafValues>
            -2.5047439336776733e-01 2.9218220710754395e-01</leafValues></_>
        <_>
          <internalNodes>
            0 -1 155 -8.6515420116484165e-04</internalNodes>
          <leafValues>
            4.3641546368598938e-01 -2.1765966713428497e-01</leafValues></_>
        <_>
          <internalNodes>
            0 -1 91 -1.2268441496416926e-03</internalNodes>
          <leafValues>
            -7.9128831624984741e-01 1.0684158653020859e-01</leafValues></_>
        <_>
          <internalNodes>
            0 -1 0 -2.7870699763298035e-02</internalNodes>
          <leafValues>
            7.3538631200790405e-01 -1.2554010748863220e-01</leafValues></_>
        <_>
          <internalNodes>
            0 -1 155 6.5428134985268116e-04</internalNodes>
          <leafValues>
            -2.3823423683643341e-01 3.6573019623756409e-01</leafValues></_>
        <_>
          <internalNodes>
            0 -1 25 3.4306421875953674e-02</internalNodes>
          <leafValues>
            8.1519640982151031e-02 -8.9523953199386597e-01</leafValues></_>
        <_>
          <internalNodes>
            0 -1 126 4.5330278575420380e-02</internalNodes>
          <leafValues>
            -1.2480031698942184e-01 6.5259206295013428e-01</leafValues></_>
        <_>
          <internalNodes>
            0 -1 51 -6.1370863113552332e-04</internalNodes>
          <leafValues>
            -3.8094702363014221e-01 1.8830834329128265e-01</leafValues></_>
        <_>
          <internalNodes>
            0 -1 158 -2.4440839886665344e-02</internalNodes>
          <leafValues>
            7.5688403844833374e-01 -1.0930022597312927e-01</leafValues></_>
        <_>
          <internalNodes>
            0 -1 35 -6.4947940409183502e-02</internalNodes>
          <leafValues>
            6.7977875471115112e-01 -1.1114769428968430e-01</leafValues></_></weakClassifiers></_>
    <!-- stage 13 -->
    <_>
      <maxWeakCount>12</maxWeakCount>
      <stageThreshold>-1.4059224128723145e+00</stageThreshold>
      <weakClassifiers>
        <_>
          <internalNodes>
            0 -1 135 5.1193911582231522e-02</internalNodes>
          <leafValues>
            -7.5531917810440063e-01 3.7500000000000000e-01</leafValues></_>
        <_>
          <internalNodes>
            0 -1 122 -1.5488957986235619e-02</internalNodes>
          <leafValues>
            2.7703845500946045e-01 -3.9059880375862122e-01</leafValues></_>
        <_>
          <internalNodes>
            0 -1 112 -1.4807442203164101e-02</internalNodes>
          <leafValues>
            3.7389329075813293e-01 -2.4697117507457733e-01</leafValues></_>
        <_>
          <internalNodes>
            0 -1 120 3.0283922329545021e-02</internalNodes>
          <leafValues>
            -1.8403458595275879e-01 5.0522106885910034e-01</leafValues></_>
        <_>
          <internalNodes>
            0 -1 111 3.4211270511150360e-02</internalNodes>
          <leafValues>
            1.1110518127679825e-01 -7.9251390695571899e-01</leafValues></_>
        <_>
          <internalNodes>
            0 -1 31 1.0500254109501839e-02</internalNodes>
          <leafValues>
            -2.1615938842296600e-01 4.5734593272209167e-01</leafValues></_>
        <_>
          <internalNodes>
            0 -1 121 5.4654322564601898e-02</internalNodes>
          <leafValues>
            -1.6738104820251465e-01 6.0371464490890503e-01</leafValues></_>
        <_>
          <internalNodes>
            0 -1 143 1.7364863306283951e-02</internalNodes>
          <leafValues>
            -1.7947286367416382e-01 4.9086266756057739e-01</leafValues></_>
        <_>
          <internalNodes>
            0 -1 9 -1.1621150188148022e-02</internalNodes>
          <leafValues>
            -7.7568548917770386e-01 1.2702690064907074e-01</leafValues></_>
        <_>
          <internalNodes>
            0 -1 140 -4.8471808433532715e-02</internalNodes>
          <leafValues>
            -7.8122150897979736e-01 1.2161397188901901e-01</leafValues></_>
        <_>
          <internalNodes>
            0 -1 139 -6.5153189003467560e-02</internalNodes>
          <leafValues>
            5.4912519454956055e-01 -1.8588101863861084e-01</leafValues></_>
        <_>
          <internalNodes>
            0 -1 16 2.6037719845771790e-01</internalNodes>
          <leafValues>
            -1.2910613417625427e-01 5.7208395004272461e-01</leafValues></_></weakClassifiers></_>
    <!-- stage 14 -->
    <_>
      <maxWeakCount>14</maxWeakCount>
      <stageThreshold>-1.3895490169525146e+00</stageThreshold>
      <weakClassifiers>
        <_>
          <internalNodes>
            0 -1 80 -8.5548684000968933e-02</internalNodes>
          <leafValues>
            -1.6417910158634186e-01 -7.9727095365524292e-01</leafValues></_>
        <_>
          <internalNodes>
            0 -1 5 -3.3412575721740723e-02</internalNodes>
          <leafValues>
            4.8774430155754089e-01 -3.5332822799682617e-01</leafValues></_>
        <_>
          <internalNodes>
            0 -1 1 2.2784776985645294e-02</internalNodes>
          <leafValues>
            -2.2426871955394745e-01 4.4922009110450745e-01</leafValues></_>
        <_>
          <internalNodes>
            0 -1 129 -1.3523612171411514e-02</internalNodes>
          <leafValues>
            -6.3262242078781128e-01 1.4475989341735840e-01</leafValues></_>
        <_>
          <internalNodes>
            0 -1 73 -2.2087022662162781e-02</internalNodes>
          <leafValues>
            -4.3114182353019714e-01 2.5858035683631897e-01</leafValues></_>
        <_>
          <internalNodes>
            0 -1 159 2.6611536741256714e-02</internalNodes>
          <leafValues>
            -1.8857532739639282e-01 6.0766661167144775e-01</leafValues></_>
        <_>
          <internalNodes>
            0 -1 132 5.6454104196745902e-05</internalNodes>
          <leafValues>
            -2.0500060915946960e-01 4.1847729682922363e-01</leafValues></_>
        <_>
          <internalNodes>
            0 -1 34 1.1038477718830109e-01</internalNodes>
          <leafValues>
            1.0753246396780014e-01 -7.2604125738143921e-01</leafValues></_>
        <_>
          <internalNodes>
            0 -1 149 -2.0058542490005493e-02</internalNodes>
          <leafValues>
            5.8854663372039795e-01 -1.4817933738231659e-01</leafValues></_>
        <_>
          <internalNodes>
            0 -1 104 3.4898156300187111e-03</internalNodes>
          <leafValues>
            -1.4216002821922302e-01 6.9169968366622925e-01</leafValues></_>
        <_>
          <internalNodes>
            0 -1 77 -5.5100060999393463e-03</internalNodes>
          <leafValues>
            -7.2665631771087646e-01 1.5250575542449951e-01</leafValues></_>
        <_>
          <internalNodes>
            0 -1 98 7.4205466080456972e-04</internalNodes>
          <leafValues>
            -2.5249585509300232e-01 4.8394110798835754e-01</leafValues></_>
        <_>
          <internalNodes>
            0 -1 18 2.5596417253836989e-04</internalNodes>
          <leafValues>
            1.6773515939712524e-01 -5.8207768201828003e-01</leafValues></_>
        <_>
          <internalNodes>
            0 -1 144 3.8577586412429810e-02</internalNodes>
          <leafValues>
            9.0616464614868164e-02 -8.1058406829833984e-01</leafValues></_></weakClassifiers></_></stages>
  <features>
    <_>
      <rects>
        <_>
          0 0 2 9 -1.</_>
        <_>
          1 0 1 9 2.</_></rects>
      <tilted>0</tilted></_>
    <_>
      <rects>
        <_>
          0 0 3 10 -1.</_>
        <_>
          1 0 1 10 3.</_></rects>
      <tilted>0</tilted></_>
    <_>
      <rects>
        <_>
          0 0 10 3 -1.</_>
        <_>
          5 0 5 3 2.</_></rects>
      <tilted>0</tilted></_>
    <_>
      <rects>
        <_>
          0 0 30 10 -1.</_>
        <_>
          15 0 15 10 2.</_></rects>
      <tilted>0</tilted></_>
    <_>
      <rects>
        <_>
          0 0 29 3 -1.</_>
        <_>
          0 1 29 1 3.</_></rects>
      <tilted>0</tilted></_>
    <_>
      <rects>
        <_>
          0 1 3 8 -1.</_>
        <_>
          1 1 1 8 3.</_></rects>
      <tilted>0</tilted></_>
    <_>
      <rects>
        <_>
          0 1 3 9 -1.</_>
        <_>
          1 1 1 9 3.</_></rects>
      <tilted>0</tilted></_>
    <_>
      <rects>
        <_>
          0 1 18 3 -1.</_>
        <_>
          0 2 18 1 3.</_></rects>
      <tilted>0</tilted></_>
    <_>
      <rects>
        <_>
          0 1 21 2 -1.</_>
        <_>
          0 2 21 1 2.</_></rects>
      <tilted>0</tilted></_>
    <_>
      <rects>
        <_>
          0 2 4 2 -1.</_>
        <_>
          0 2 2 1 2.</_>
        <_>
          2 3 2 1 2.</_></rects>
      <tilted>0</tilted></_>
    <_>
      <rects>
        <_>
          0 2 23 3 -1.</_>
        <_>
          0 3 23 1 3.</_></rects>
      <tilted>0</tilted></_>
    <_>
      <rects>
        <_>
          0 2 29 6 -1.</_>
        <_>
          0 4 29 2 3.</_></rects>
      <tilted>0</tilted></_>
    <_>
      <rects>
        <_>
          0 3 12 7 -1.</_>
        <_>
          6 3 6 7 2.</_></rects>
      <tilted>0</tilted></_>
    <_>
      <rects>
        <_>
          0 3 19 3 -1.</_>
        <_>
          0 4 19 1 3.</_></rects>
      <tilted>0</tilted></_>
    <_>
      <rects>
        <_>
          0 4 26 6 -1.</_>
        <_>
          13 4 13 6 2.</_></rects>
      <tilted>0</tilted></_>
    <_>
      <rects>
        <_>
          0 4 26 6 -1.</_>
        <_>
          0 6 26 2 3.</_></rects>
      <tilted>0</tilted></_>
    <_>
      <rects>
        <_>
          0 4 29 6 -1.</_>
        <_>
          0 6 29 2 3.</_></rects>
      <tilted>0</tilted></_>
    <_>
      <rects>
        <_>
          0 5 19 3 -1.</_>
        <_>
          0 6 19 1 3.</_></rects>
      <tilted>0</tilted></_>
    <_>
      <rects>
        <_>
          0 7 6 1 -1.</_>
        <_>
          3 7 3 1 2.</_></rects>
      <tilted>0</tilted></_>
    <_>
      <rects>
        <_>
          0 8 30 1 -1.</_>
        <_>
          15 8 15 1 2.</_></rects>
      <tilted>0</tilted></_>
    <_>
      <rects>
        <_>
          0 9 14 1 -1.</_>
        <_>
          7 9 7 1 2.</_></rects>
      <tilted>0</tilted></_>
    <_>
      <rects>
        <_>
          1 0 3 8 -1.</_>
        <_>
          2 0 1 8 3.</_></rects>
      <tilted>0</tilted></_>
    <_>
      <rects>
        <_>
          1 0 3 9 -1.</_>
        <_>
          2 0 1 9 3.</_></rects>
      <tilted>0</tilted></_>
    <_>
      <rects>
        <_>
          1 0 3 10 -1.</_>
        <_>
          2 0 1 10 3.</_></rects>
      <tilted>0</tilted></_>
    <_>
      <rects>
        <_>
          1 0 4 4 -1.</_>
        <_>
          3 0 2 4 2.</_></rects>
      <tilted>0</tilted></_>
    <_>
      <rects>
        <_>
          1 0 6 10 -1.</_>
        <_>
          3 0 2 10 3.</_></rects>
      <tilted>0</tilted></_>
    <_>
      <rects>
        <_>
          1 0 21 1 -1.</_>
        <_>
          8 0 7 1 3.</_></rects>
      <tilted>0</tilted></_>
    <_>
      <rects>
        <_>
          1 0 9 10 -1.</_>
        <_>
          1 5 9 5 2.</_></rects>
      <tilted>0</tilted></_>
    <_>
      <rects>
        <_>
          1 0 13 6 -1.</_>
        <_>
          1 2 13 2 3.</_></rects>
      <tilted>0</tilted></_>
    <_>
      <rects>
        <_>
          1 0 28 9 -1.</_>
        <_>
          1 3 28 3 3.</_></rects>
      <tilted>0</tilted></_>
    <_>
      <rects>
        <_>
          1 1 2 8 -1.</_>
        <_>
          2 1 1 8 2.</_></rects>
      <tilted>0</tilted></_>
    <_>
      <rects>
        <_>
          1 1 8 8 -1.</_>
        <_>
          5 1 4 8 2.</_></rects>
      <tilted>0</tilted></_>
    <_>
      <rects>
        <_>
          1 1 27 3 -1.</_>
        <_>
          1 2 27 1 3.</_></rects>
      <tilted>0</tilted></_>
    <_>
      <rects>
        <_>
          1 2 2 6 -1.</_>
        <_>
          1 4 2 2 3.</_></rects>
      <tilted>0</tilted></_>
    <_>
      <rects>
        <_>
          1 2 5 8 -1.</_>
        <_>
          1 6 5 4 2.</_></rects>
      <tilted>0</tilted></_>
    <_>
      <rects>
        <_>
          1 2 7 3 -1.</_>
        <_>
          1 3 7 1 3.</_></rects>
      <tilted>0</tilted></_>
    <_>
      <rects>
        <_>
          1 2 24 6 -1.</_>
        <_>
          1 2 12 3 2.</_>
        <_>
          13 5 12 3 2.</_></rects>
      <tilted>0</tilted></_>
    <_>
      <rects>
        <_>
          1 2 29 8 -1.</_>
        <_>
          1 6 29 4 2.</_></rects>
      <tilted>0</tilted></_>
    <_>
      <rects>
        <_>
          1 3 3 5 -1.</_>
        <_>
          2 3 1 5 3.</_></rects>
      <tilted>0</tilted></_>
    <_>
      <rects>
        <_>
          1 4 3 6 -1.</_>
        <_>
          1 7 3 3 2.</_></rects>
      <tilted>0</tilted></_>
    <_>
      <rects>
        <_>
          1 4 9 3 -1.</_>
        <_>
          1 5 9 1 3.</_></rects>
      <tilted>0</tilted></_>
    <_>
      <rects>
        <_>
          1 5 27 3 -1.</_>
        <_>
          1 6 27 1 3.</_></rects>
      <tilted>0</tilted></_>
    <_>
      <rects>
        <_>
          1 6 19 3 -1.</_>
        <_>
          1 7 19 1 3.</_></rects>
      <tilted>0</tilted></_>
    <_>
      <rects>
        <_>
          1 7 27 1 -1.</_>
        <_>
          10 7 9 1 3.</_></rects>
      <tilted>0</tilted></_>
    <_>
      <rects>
        <_>
          2 0 3 10 -1.</_>
        <_>
          3 0 1 10 3.</_></rects>
      <tilted>0</tilted></_>
    <_>
      <rects>
        <_>
          2 0 28 10 -1.</_>
        <_>
          16 0 14 10 2.</_></rects>
      <tilted>0</tilted></_>
    <_>
      <rects>
        <_>
          2 0 23 3 -1.</_>
        <_>
          2 1 23 1 3.</_></rects>
      <tilted>0</tilted></_>
    <_>
      <rects>
        <_>
          2 2 3 6 -1.</_>
        <_>
          3 2 1 6 3.</_></rects>
      <tilted>0</tilted></_>
    <_>
      <rects>
        <_>
          2 2 5 8 -1.</_>
        <_>
          2 6 5 4 2.</_></rects>
      <tilted>0</tilted></_>
    <_>
      <rects>
        <_>
          2 3 27 3 -1.</_>
        <_>
          2 4 27 1 3.</_></rects>
      <tilted>0</tilted></_>
    <_>
      <rects>
        <_>
          2 4 2 1 -1.</_>
        <_>
          3 4 1 1 2.</_></rects>
      <tilted>0</tilted></_>
    <_>
      <rects>
        <_>
          2 8 28 1 -1.</_>
        <_>
          16 8 14 1 2.</_></rects>
      <tilted>0</tilted></_>
    <_>
      <rects>
        <_>
          2 9 21 1 -1.</_>
        <_>
          9 9 7 1 3.</_></rects>
      <tilted>0</tilted></_>
    <_>
      <rects>
        <_>
          2 9 20 1 -1.</_>
        <_>
          12 9 10 1 2.</_></rects>
      <tilted>0</tilted></_>
    <_>
      <rects>
        <_>
          3 0 3 6 -1.</_>
        <_>
          4 0 1 6 3.</_></rects>
      <tilted>0</tilted></_>
    <_>
      <rects>
        <_>
          3 0 26 9 -1.</_>
        <_>
          3 3 26 3 3.</_></rects>
      <tilted>0</tilted></_>
    <_>
      <rects>
        <_>
          3 0 27 9 -1.</_>
        <_>
          3 3 27 3 3.</_></rects>
      <tilted>0</tilted></_>
    <_>
      <rects>
        <_>
          3 1 3 8 -1.</_>
        <_>
          4 1 1 8 3.</_></rects>
      <tilted>0</tilted></_>
    <_>
      <rects>
        <_>
          3 1 20 3 -1.</_>
        <_>
          3 2 20 1 3.</_></rects>
      <tilted>0</tilted></_>
    <_>
      <rects>
        <_>
          3 3 3 6 -1.</_>
        <_>
          3 6 3 3 2.</_></rects>
      <tilted>0</tilted></_>
    <_>
      <rects>
        <_>
          4 0 3 9 -1.</_>
        <_>
          5 0 1 9 3.</_></rects>
      <tilted>0</tilted></_>
    <_>
      <rects>
        <_>
          4 4 6 4 -1.</_>
        <_>
          4 4 3 2 2.</_>
        <_>
          7 6 3 2 2.</_></rects>
      <tilted>0</tilted></_>
    <_>
      <rects>
        <_>
          4 5 18 3 -1.</_>
        <_>
          4 6 18 1 3.</_></rects>
      <tilted>0</tilted></_>
    <_>
      <rects>
        <_>
          5 0 3 7 -1.</_>
        <_>
          6 0 1 7 3.</_></rects>
      <tilted>0</tilted></_>
    <_>
      <rects>
        <_>
          5 0 2 9 -1.</_>
        <_>
          6 0 1 9 2.</_></rects>
      <tilted>0</tilted></_>
    <_>
      <rects>
        <_>
          5 1 3 9 -1.</_>
        <_>
          6 1 1 9 3.</_></rects>
      <tilted>0</tilted></_>
    <_>
      <rects>
        <_>
          5 2 12 7 -1.</_>
        <_>
          9 2 4 7 3.</_></rects>
      <tilted>0</tilted></_>
    <_>
      <rects>
        <_>
          5 9 6 1 -1.</_>
        <_>
          7 9 2 1 3.</_></rects>
      <tilted>0</tilted></_>
    <_>
      <rects>
        <_>
          6 0 3 9 -1.</_>
        <_>
          7 0 1 9 3.</_></rects>
      <tilted>0</tilted></_>
    <_>
      <rects>
        <_>
          6 0 15 1 -1.</_>
        <_>
          11 0 5 1 3.</_></rects>
      <tilted>0</tilted></_>
    <_>
      <rects>
        <_>
          6 0 22 6 -1.</_>
        <_>
          6 2 22 2 3.</_></rects>
      <tilted>0</tilted></_>
    <_>
      <rects>
        <_>
          6 1 3 9 -1.</_>
        <_>
          7 1 1 9 3.</_></rects>
      <tilted>0</tilted></_>
    <_>
      <rects>
        <_>
          6 2 3 7 -1.</_>
        <_>
          7 2 1 7 3.</_></rects>
      <tilted>0</tilted></_>
    <_>
      <rects>
        <_>
          6 2 22 4 -1.</_>
        <_>
          6 4 22 2 2.</_></rects>
      <tilted>0</tilted></_>
    <_>
      <rects>
        <_>
          6 2 24 8 -1.</_>
        <_>
          6 6 24 4 2.</_></rects>
      <tilted>0</tilted></_>
    <_>
      <rects>
        <_>
          6 3 20 3 -1.</_>
        <_>
          6 4 20 1 3.</_></rects>
      <tilted>0</tilted></_>
    <_>
      <rects>
        <_>
          6 6 23 4 -1.</_>
        <_>
          6 8 23 2 2.</_></rects>
      <tilted>0</tilted></_>
    <_>
      <rects>
        <_>
          6 7 6 3 -1.</_>
        <_>
          8 7 2 3 3.</_></rects>
      <tilted>0</tilted></_>
    <_>
      <rects>
        <_>
          7 0 3 9 -1.</_>
        <_>
          8 0 1 9 3.</_></rects>
      <tilted>0</tilted></_>
    <_>
      <rects>
        <_>
          7 4 2 6 -1.</_>
        <_>
          7 7 2 3 2.</_></rects>
      <tilted>0</tilted></_>
    <_>
      <rects>
        <_>
          7 4 16 6 -1.</_>
        <_>
          7 6 16 2 3.</_></rects>
      <tilted>0</tilted></_>
    <_>
      <rects>
        <_>
          7 9 6 1 -1.</_>
        <_>
          9 9 2 1 3.</_></rects>
      <tilted>0</tilted></_>
    <_>
      <rects>
        <_>
          8 0 18 3 -1.</_>
        <_>
          8 1 18 1 3.</_></rects>
      <tilted>0</tilted></_>
    <_>
      <rects>
        <_>
          8 1 3 6 -1.</_>
        <_>
          9 1 1 6 3.</_></rects>
      <tilted>0</tilted></_>
    <_>
      <rects>
        <_>
          8 1 19 6 -1.</_>
        <_>
          8 3 19 2 3.</_></rects>
      <tilted>0</tilted></_>
    <_>
      <rects>
        <_>
          8 2 22 8 -1.</_>
        <_>
          19 2 11 8 2.</_></rects>
      <tilted>0</tilted></_>
    <_>
      <rects>
        <_>
          8 4 3 6 -1.</_>
        <_>
          8 7 3 3 2.</_></rects>
      <tilted>0</tilted></_>
    <_>
      <rects>
        <_>
          9 1 3 9 -1.</_>
        <_>
          10 1 1 9 3.</_></rects>
      <tilted>0</tilted></_>
    <_>
      <rects>
        <_>
          9 2 16 3 -1.</_>
        <_>
          9 3 16 1 3.</_></rects>
      <tilted>0</tilted></_>
    <_>
      <rects>
        <_>
          9 3 21 6 -1.</_>
        <_>
          9 5 21 2 3.</_></rects>
      <tilted>0</tilted></_>
    <_>
      <rects>
        <_>
          9 6 17 3 -1.</_>
        <_>
          9 7 17 1 3.</_></rects>
      <tilted>0</tilted></_>
    <_>
      <rects>
        <_>
          9 9 3 1 -1.</_>
        <_>
          10 9 1 1 3.</_></rects>
      <tilted>0</tilted></_>
    <_>
      <rects>
        <_>
          9 9 6 1 -1.</_>
        <_>
          11 9 2 1 3.</_></rects>
      <tilted>0</tilted></_>
    <_>
      <rects>
        <_>
          10 0 3 9 -1.</_>
        <_>
          11 0 1 9 3.</_></rects>
      <tilted>0</tilted></_>
    <_>
      <rects>
        <_>
          10 0 18 3 -1.</_>
        <_>
          10 1 18 1 3.</_></rects>
      <tilted>0</tilted></_>
    <_>
      <rects>
        <_>
          10 1 5 3 -1.</_>
        <_>
          10 2 5 1 3.</_></rects>
      <tilted>0</tilted></_>
    <_>
      <rects>
        <_>
          10 2 3 5 -1.</_>
        <_>
          11 2 1 5 3.</_></rects>
      <tilted>0</tilted></_>
    <_>
      <rects>
        <_>
          10 4 8 2 -1.</_>
        <_>
          10 4 4 1 2.</_>
        <_>
          14 5 4 1 2.</_></rects>
      <tilted>0</tilted></_>
    <_>
      <rects>
        <_>
          10 7 3 3 -1.</_>
        <_>
          10 8 3 1 3.</_></rects>
      <tilted>0</tilted></_>
    <_>
      <rects>
        <_>
          10 7 19 3 -1.</_>
        <_>
          10 8 19 1 3.</_></rects>
      <tilted>0</tilted></_>
    <_>
      <rects>
        <_>
          11 0 15 1 -1.</_>
        <_>
          16 0 5 1 3.</_></rects>
      <tilted>0</tilted></_>
    <_>
      <rects>
        <_>
          11 0 18 10 -1.</_>
        <_>
          11 5 18 5 2.</_></rects>
      <tilted>0</tilted></_>
    <_>
      <rects>
        <_>
          11 0 19 3 -1.</_>
        <_>
          11 1 19 1 3.</_></rects>
      <tilted>0</tilted></_>
    <_>
      <rects>
        <_>
          11 3 12 6 -1.</_>
        <_>
          15 3 4 6 3.</_></rects>
      <tilted>0</tilted></_>
    <_>
      <rects>
        <_>
          11 8 2 2 -1.</_>
        <_>
          11 9 2 1 2.</_></rects>
      <tilted>0</tilted></_>
    <_>
      <rects>
        <_>
          12 0 9 3 -1.</_>
        <_>
          12 1 9 1 3.</_></rects>
      <tilted>0</tilted></_>
    <_>
      <rects>
        <_>
          12 1 3 9 -1.</_>
        <_>
          13 1 1 9 3.</_></rects>
      <tilted>0</tilted></_>
    <_>
      <rects>
        <_>
          12 1 16 6 -1.</_>
        <_>
          12 3 16 2 3.</_></rects>
      <tilted>0</tilted></_>
    <_>
      <rects>
        <_>
          12 5 2 1 -1.</_>
        <_>
          13 5 1 1 2.</_></rects>
      <tilted>0</tilted></_>
    <_>
      <rects>
        <_>
          13 0 6 3 -1.</_>
        <_>
          15 0 2 3 3.</_></rects>
      <tilted>0</tilted></_>
    <_>
      <rects>
        <_>
          13 0 15 1 -1.</_>
        <_>
          18 0 5 1 3.</_></rects>
      <tilted>0</tilted></_>
    <_>
      <rects>
        <_>
          13 0 10 6 -1.</_>
        <_>
          13 0 5 3 2.</_>
        <_>
          18 3 5 3 2.</_></rects>
      <tilted>0</tilted></_>
    <_>
      <rects>
        <_>
          13 1 3 8 -1.</_>
        <_>
          14 1 1 8 3.</_></rects>
      <tilted>0</tilted></_>
    <_>
      <rects>
        <_>
          13 8 10 2 -1.</_>
        <_>
          13 9 10 1 2.</_></rects>
      <tilted>0</tilted></_>
    <_>
      <rects>
        <_>
          14 0 3 10 -1.</_>
        <_>
          15 0 1 10 3.</_></rects>
      <tilted>0</tilted></_>
    <_>
      <rects>
        <_>
          14 3 14 3 -1.</_>
        <_>
          14 4 14 1 3.</_></rects>
      <tilted>0</tilted></_>
    <_>
      <rects>
        <_>
          14 4 16 3 -1.</_>
        <_>
          14 5 16 1 3.</_></rects>
      <tilted>0</tilted></_>
    <_>
      <rects>
        <_>
          14 9 3 1 -1.</_>
        <_>
          15 9 1 1 3.</_></rects>
      <tilted>0</tilted></_>
    <_>
      <rects>
        <_>
          15 1 3 8 -1.</_>
        <_>
          16 1 1 8 3.</_></rects>
      <tilted>0</tilted></_>
    <_>
      <rects>
        <_>
          15 2 12 7 -1.</_>
        <_>
          19 2 4 7 3.</_></rects>
      <tilted>0</tilted></_>
    <_>
      <rects>
        <_>
          15 2 15 3 -1.</_>
        <_>
          15 3 15 1 3.</_></rects>
      <tilted>0</tilted></_>
    <_>
      <rects>
        <_>
          16 0 9 9 -1.</_>
        <_>
          19 0 3 9 3.</_></rects>
      <tilted>0</tilted></_>
    <_>
      <rects>
        <_>
          16 1 3 8 -1.</_>
        <_>
          17 1 1 8 3.</_></rects>
      <tilted>0</tilted></_>
    <_>
      <rects>
        <_>
          16 4 3 3 -1.</_>
        <_>
          16 5 3 1 3.</_></rects>
      <tilted>0</tilted></_>
    <_>
      <rects>
        <_>
          16 4 12 3 -1.</_>
        <_>
          16 5 12 1 3.</_></rects>
      <tilted>0</tilted></_>
    <_>
      <rects>
        <_>
          16 7 14 1 -1.</_>
        <_>
          23 7 7 1 2.</_></rects>
      <tilted>0</tilted></_>
    <_>
      <rects>
        <_>
          16 8 11 2 -1.</_>
        <_>
          16 9 11 1 2.</_></rects>
      <tilted>0</tilted></_>
    <_>
      <rects>
        <_>
          17 0 2 9 -1.</_>
        <_>
          17 3 2 3 3.</_></rects>
      <tilted>0</tilted></_>
    <_>
      <rects>
        <_>
          17 0 12 1 -1.</_>
        <_>
          21 0 4 1 3.</_></rects>
      <tilted>0</tilted></_>
    <_>
      <rects>
        <_>
          17 0 12 3 -1.</_>
        <_>
          23 0 6 3 2.</_></rects>
      <tilted>0</tilted></_>
    <_>
      <rects>
        <_>
          17 9 9 1 -1.</_>
        <_>
          20 9 3 1 3.</_></rects>
      <tilted>0</tilted></_>
    <_>
      <rects>
        <_>
          18 0 2 10 -1.</_>
        <_>
          19 0 1 10 2.</_></rects>
      <tilted>0</tilted></_>
    <_>
      <rects>
        <_>
          18 1 1 3 -1.</_>
        <_>
          18 2 1 1 3.</_></rects>
      <tilted>0</tilted></_>
    <_>
      <rects>
        <_>
          18 3 3 4 -1.</_>
        <_>
          19 3 1 4 3.</_></rects>
      <tilted>0</tilted></_>
    <_>
      <rects>
        <_>
          19 0 3 9 -1.</_>
        <_>
          20 0 1 9 3.</_></rects>
      <tilted>0</tilted></_>
    <_>
      <rects>
        <_>
          19 1 3 6 -1.</_>
        <_>
          20 1 1 6 3.</_></rects>
      <tilted>0</tilted></_>
    <_>
      <rects>
        <_>
          19 1 3 8 -1.</_>
        <_>
          20 1 1 8 3.</_></rects>
      <tilted>0</tilted></_>
    <_>
      <rects>
        <_>
          19 4 2 6 -1.</_>
        <_>
          19 7 2 3 2.</_></rects>
      <tilted>0</tilted></_>
    <_>
      <rects>
        <_>
          20 0 3 10 -1.</_>
        <_>
          21 0 1 10 3.</_></rects>
      <tilted>0</tilted></_>
    <_>
      <rects>
        <_>
          20 0 9 9 -1.</_>
        <_>
          23 0 3 9 3.</_></rects>
      <tilted>0</tilted></_>
    <_>
      <rects>
        <_>
          20 1 10 8 -1.</_>
        <_>
          20 1 5 4 2.</_>
        <_>
          25 5 5 4 2.</_></rects>
      <tilted>0</tilted></_>
    <_>
      <rects>
        <_>
          20 3 2 1 -1.</_>
        <_>
          21 3 1 1 2.</_></rects>
      <tilted>0</tilted></_>
    <_>
      <rects>
        <_>
          20 3 3 5 -1.</_>
        <_>
          21 3 1 5 3.</_></rects>
      <tilted>0</tilted></_>
    <_>
      <rects>
        <_>
          20 3 6 4 -1.</_>
        <_>
          23 3 3 4 2.</_></rects>
      <tilted>0</tilted></_>
    <_>
      <rects>
        <_>
          20 4 10 6 -1.</_>
        <_>
          20 4 5 3 2.</_>
        <_>
          25 7 5 3 2.</_></rects>
      <tilted>0</tilted></_>
    <_>
      <rects>
        <_>
          20 7 8 3 -1.</_>
        <_>
          20 8 8 1 3.</_></rects>
      <tilted>0</tilted></_>
    <_>
      <rects>
        <_>
          20 8 10 2 -1.</_>
        <_>
          20 9 10 1 2.</_></rects>
      <tilted>0</tilted></_>
    <_>
      <rects>
        <_>
          21 0 9 1 -1.</_>
        <_>
          24 0 3 1 3.</_></rects>
      <tilted>0</tilted></_>
    <_>
      <rects>
        <_>
          22 9 4 1 -1.</_>
        <_>
          24 9 2 1 2.</_></rects>
      <tilted>0</tilted></_>
    <_>
      <rects>
        <_>
          23 0 4 7 -1.</_>
        <_>
          25 0 2 7 2.</_></rects>
      <tilted>0</tilted></_>
    <_>
      <rects>
        <_>
          23 2 5 6 -1.</_>
        <_>
          23 4 5 2 3.</_></rects>
      <tilted>0</tilted></_>
    <_>
      <rects>
        <_>
          23 7 7 3 -1.</_>
        <_>
          23 8 7 1 3.</_></rects>
      <tilted>0</tilted></_>
    <_>
      <rects>
        <_>
          24 0 3 9 -1.</_>
        <_>
          25 0 1 9 3.</_></rects>
      <tilted>0</tilted></_>
    <_>
      <rects>
        <_>
          24 0 4 4 -1.</_>
        <_>
          24 2 4 2 2.</_></rects>
      <tilted>0</tilted></_>
    <_>
      <rects>
        <_>
          24 1 6 8 -1.</_>
        <_>
          27 1 3 8 2.</_></rects>
      <tilted>0</tilted></_>
    <_>
      <rects>
        <_>
          24 4 2 1 -1.</_>
        <_>
          25 4 1 1 2.</_></rects>
      <tilted>0</tilted></_>
    <_>
      <rects>
        <_>
          24 4 2 3 -1.</_>
        <_>
          25 4 1 3 2.</_></rects>
      <tilted>0</tilted></_>
    <_>
      <rects>
        <_>
          25 0 3 8 -1.</_>
        <_>
          26 0 1 8 3.</_></rects>
      <tilted>0</tilted></_>
    <_>
      <rects>
        <_>
          25 2 3 8 -1.</_>
        <_>
          25 6 3 4 2.</_></rects>
      <tilted>0</tilted></_>
    <_>
      <rects>
        <_>
          26 1 3 7 -1.</_>
        <_>
          27 1 1 7 3.</_></rects>
      <tilted>0</tilted></_>
    <_>
      <rects>
        <_>
          27 1 2 9 -1.</_>
        <_>
          28 1 1 9 2.</_></rects>
      <tilted>0</tilted></_>
    <_>
      <rects>
        <_>
          28 0 2 8 -1.</_>
        <_>
          29 0 1 8 2.</_></rects>
      <tilted>0</tilted></_></features></cascade>
</opencv_storage>
